digraph Tree {
node [shape=box, style="filled", color="black", fontname="helvetica"] ;
edge [fontname="helvetica"] ;
0 [label="Glucose <= 127.5\ngini = 0.5\nsamples = 750\nvalue = [376, 374]", fillcolor="#fffefe"] ;
1 [label="Age <= 28.5\ngini = 0.431\nsamples = 430\nvalue = [295, 135]", fillcolor="#f1bb94"] ;
0 -> 1 [labeldistance=2.5, labelangle=45, headlabel="True"] ;
2 [label="BMI <= 30.598\ngini = 0.223\nsamples = 219\nvalue = [191, 28]", fillcolor="#e99356"] ;
1 -> 2 ;
3 [label="Pregnancies <= 7.0\ngini = 0.069\nsamples = 112\nvalue = [108, 4]", fillcolor="#e68640"] ;
2 -> 3 ;
4 [label="Pregnancies <= 5.5\ngini = 0.053\nsamples = 111\nvalue = [108, 3]", fillcolor="#e6843e"] ;
3 -> 4 ;
5 [label="DiabetesPedigreeFunction <= 0.672\ngini = 0.036\nsamples = 108\nvalue = [106, 2]", fillcolor="#e5833d"] ;
4 -> 5 ;
6 [label="gini = 0.0\nsamples = 93\nvalue = [93, 0]", fillcolor="#e58139"] ;
5 -> 6 ;
7 [label="BMI <= 24.75\ngini = 0.231\nsamples = 15\nvalue = [13, 2]", fillcolor="#e99457"] ;
5 -> 7 ;
8 [label="gini = 0.0\nsamples = 2\nvalue = [0, 2]", fillcolor="#399de5"] ;
7 -> 8 ;
9 [label="gini = 0.0\nsamples = 13\nvalue = [13, 0]", fillcolor="#e58139"] ;
7 -> 9 ;
10 [label="BloodPressure <= 72.0\ngini = 0.444\nsamples = 3\nvalue = [2, 1]", fillcolor="#f2c09c"] ;
4 -> 10 ;
11 [label="gini = 0.0\nsamples = 2\nvalue = [2, 0]", fillcolor="#e58139"] ;
10 -> 11 ;
12 [label="gini = 0.0\nsamples = 1\nvalue = [0, 1]", fillcolor="#399de5"] ;
10 -> 12 ;
13 [label="gini = 0.0\nsamples = 1\nvalue = [0, 1]", fillcolor="#399de5"] ;
3 -> 13 ;
14 [label="BloodPressure <= 38.0\ngini = 0.348\nsamples = 107\nvalue = [83, 24]", fillcolor="#eda572"] ;
2 -> 14 ;
15 [label="gini = 0.0\nsamples = 3\nvalue = [0, 3]", fillcolor="#399de5"] ;
14 -> 15 ;
16 [label="DiabetesPedigreeFunction <= 0.438\ngini = 0.322\nsamples = 104\nvalue = [83, 21]", fillcolor="#eca16b"] ;
14 -> 16 ;
17 [label="BloodPressure <= 93.0\ngini = 0.147\nsamples = 50\nvalue = [46, 4]", fillcolor="#e78c4a"] ;
16 -> 17 ;
18 [label="BloodPressure <= 51.0\ngini = 0.115\nsamples = 49\nvalue = [46, 3]", fillcolor="#e78946"] ;
17 -> 18 ;
19 [label="BloodPressure <= 48.0\ngini = 0.5\nsamples = 2\nvalue = [1, 1]", fillcolor="#ffffff"] ;
18 -> 19 ;
20 [label="gini = 0.0\nsamples = 1\nvalue = [1, 0]", fillcolor="#e58139"] ;
19 -> 20 ;
21 [label="gini = 0.0\nsamples = 1\nvalue = [0, 1]", fillcolor="#399de5"] ;
19 -> 21 ;
22 [label="BloodPressure <= 80.5\ngini = 0.081\nsamples = 47\nvalue = [45, 2]", fillcolor="#e68742"] ;
18 -> 22 ;
23 [label="SkinThickness <= 8.5\ngini = 0.045\nsamples = 43\nvalue = [42, 1]", fillcolor="#e6843e"] ;
22 -> 23 ;
24 [label="Pregnancies <= 0.5\ngini = 0.278\nsamples = 6\nvalue = [5, 1]", fillcolor="#ea9a61"] ;
23 -> 24 ;
25 [label="Age <= 24.5\ngini = 0.5\nsamples = 2\nvalue = [1, 1]", fillcolor="#ffffff"] ;
24 -> 25 ;
26 [label="gini = 0.0\nsamples = 1\nvalue = [0, 1]", fillcolor="#399de5"] ;
25 -> 26 ;
27 [label="gini = 0.0\nsamples = 1\nvalue = [1, 0]", fillcolor="#e58139"] ;
25 -> 27 ;
28 [label="gini = 0.0\nsamples = 4\nvalue = [4, 0]", fillcolor="#e58139"] ;
24 -> 28 ;
29 [label="gini = 0.0\nsamples = 37\nvalue = [37, 0]", fillcolor="#e58139"] ;
23 -> 29 ;
30 [label="BloodPressure <= 81.5\ngini = 0.375\nsamples = 4\nvalue = [3, 1]", fillcolor="#eeab7b"] ;
22 -> 30 ;
31 [label="gini = 0.0\nsamples = 1\nvalue = [0, 1]", fillcolor="#399de5"] ;
30 -> 31 ;
32 [label="gini = 0.0\nsamples = 3\nvalue = [3, 0]", fillcolor="#e58139"] ;
30 -> 32 ;
33 [label="gini = 0.0\nsamples = 1\nvalue = [0, 1]", fillcolor="#399de5"] ;
17 -> 33 ;
34 [label="DiabetesPedigreeFunction <= 0.956\ngini = 0.431\nsamples = 54\nvalue = [37, 17]", fillcolor="#f1bb94"] ;
16 -> 34 ;
35 [label="Insulin <= 65.0\ngini = 0.411\nsamples = 52\nvalue = [37.0, 15.0]", fillcolor="#f0b489"] ;
34 -> 35 ;
36 [label="Glucose <= 103.0\ngini = 0.496\nsamples = 22\nvalue = [12, 10]", fillcolor="#fbeade"] ;
35 -> 36 ;
37 [label="SkinThickness <= 40.5\ngini = 0.198\nsamples = 9\nvalue = [8, 1]", fillcolor="#e89152"] ;
36 -> 37 ;
38 [label="gini = 0.0\nsamples = 7\nvalue = [7, 0]", fillcolor="#e58139"] ;
37 -> 38 ;
39 [label="BloodPressure <= 64.0\ngini = 0.5\nsamples = 2\nvalue = [1, 1]", fillcolor="#ffffff"] ;
37 -> 39 ;
40 [label="gini = 0.0\nsamples = 1\nvalue = [1, 0]", fillcolor="#e58139"] ;
39 -> 40 ;
41 [label="gini = 0.0\nsamples = 1\nvalue = [0, 1]", fillcolor="#399de5"] ;
39 -> 41 ;
42 [label="DiabetesPedigreeFunction <= 0.804\ngini = 0.426\nsamples = 13\nvalue = [4, 9]", fillcolor="#91c9f1"] ;
36 -> 42 ;
43 [label="BloodPressure <= 61.0\ngini = 0.298\nsamples = 11\nvalue = [2, 9]", fillcolor="#65b3eb"] ;
42 -> 43 ;
44 [label="gini = 0.0\nsamples = 1\nvalue = [1, 0]", fillcolor="#e58139"] ;
43 -> 44 ;
45 [label="BMI <= 45.004\ngini = 0.18\nsamples = 10\nvalue = [1, 9]", fillcolor="#4fa8e8"] ;
43 -> 45 ;
46 [label="gini = 0.0\nsamples = 9\nvalue = [0, 9]", fillcolor="#399de5"] ;
45 -> 46 ;
47 [label="gini = 0.0\nsamples = 1\nvalue = [1, 0]", fillcolor="#e58139"] ;
45 -> 47 ;
48 [label="gini = 0.0\nsamples = 2\nvalue = [2, 0]", fillcolor="#e58139"] ;
42 -> 48 ;
49 [label="BloodPressure <= 66.5\ngini = 0.278\nsamples = 30\nvalue = [25, 5]", fillcolor="#ea9a61"] ;
35 -> 49 ;
50 [label="Pregnancies <= 3.0\ngini = 0.444\nsamples = 15\nvalue = [10, 5]", fillcolor="#f2c09c"] ;
49 -> 50 ;
51 [label="DiabetesPedigreeFunction <= 0.652\ngini = 0.355\nsamples = 13\nvalue = [10, 3]", fillcolor="#eda774"] ;
50 -> 51 ;
52 [label="gini = 0.0\nsamples = 8\nvalue = [8, 0]", fillcolor="#e58139"] ;
51 -> 52 ;
53 [label="Glucose <= 113.0\ngini = 0.48\nsamples = 5\nvalue = [2, 3]", fillcolor="#bddef6"] ;
51 -> 53 ;
54 [label="gini = 0.0\nsamples = 3\nvalue = [0, 3]", fillcolor="#399de5"] ;
53 -> 54 ;
55 [label="gini = 0.0\nsamples = 2\nvalue = [2, 0]", fillcolor="#e58139"] ;
53 -> 55 ;
56 [label="gini = 0.0\nsamples = 2\nvalue = [0, 2]", fillcolor="#399de5"] ;
50 -> 56 ;
57 [label="gini = 0.0\nsamples = 15\nvalue = [15, 0]", fillcolor="#e58139"] ;
49 -> 57 ;
58 [label="gini = 0.0\nsamples = 2\nvalue = [0, 2]", fillcolor="#399de5"] ;
34 -> 58 ;
59 [label="BMI <= 26.95\ngini = 0.5\nsamples = 211\nvalue = [104, 107]", fillcolor="#f9fcfe"] ;
1 -> 59 ;
60 [label="BMI <= 11.06\ngini = 0.176\nsamples = 41\nvalue = [37, 4]", fillcolor="#e88f4e"] ;
59 -> 60 ;
61 [label="gini = 0.0\nsamples = 3\nvalue = [0, 3]", fillcolor="#399de5"] ;
60 -> 61 ;
62 [label="Age <= 29.5\ngini = 0.051\nsamples = 38\nvalue = [37, 1]", fillcolor="#e6843e"] ;
60 -> 62 ;
63 [label="SkinThickness <= 12.0\ngini = 0.5\nsamples = 2\nvalue = [1, 1]", fillcolor="#ffffff"] ;
62 -> 63 ;
64 [label="gini = 0.0\nsamples = 1\nvalue = [1, 0]", fillcolor="#e58139"] ;
63 -> 64 ;
65 [label="gini = 0.0\nsamples = 1\nvalue = [0, 1]", fillcolor="#399de5"] ;
63 -> 65 ;
66 [label="gini = 0.0\nsamples = 36\nvalue = [36, 0]", fillcolor="#e58139"] ;
62 -> 66 ;
67 [label="Glucose <= 94.5\ngini = 0.478\nsamples = 170\nvalue = [67.0, 103.0]", fillcolor="#baddf6"] ;
59 -> 67 ;
68 [label="Glucose <= 39.0\ngini = 0.35\nsamples = 31\nvalue = [24, 7]", fillcolor="#eda673"] ;
67 -> 68 ;
69 [label="gini = 0.0\nsamples = 5\nvalue = [0, 5]", fillcolor="#399de5"] ;
68 -> 69 ;
70 [label="Age <= 42.5\ngini = 0.142\nsamples = 26\nvalue = [24, 2]", fillcolor="#e78c49"] ;
68 -> 70 ;
71 [label="gini = 0.0\nsamples = 19\nvalue = [19, 0]", fillcolor="#e58139"] ;
70 -> 71 ;
72 [label="BMI <= 33.589\ngini = 0.408\nsamples = 7\nvalue = [5, 2]", fillcolor="#efb388"] ;
70 -> 72 ;
73 [label="Insulin <= 63.0\ngini = 0.444\nsamples = 3\nvalue = [1, 2]", fillcolor="#9ccef2"] ;
72 -> 73 ;
74 [label="gini = 0.0\nsamples = 2\nvalue = [0, 2]", fillcolor="#399de5"] ;
73 -> 74 ;
75 [label="gini = 0.0\nsamples = 1\nvalue = [1, 0]", fillcolor="#e58139"] ;
73 -> 75 ;
76 [label="gini = 0.0\nsamples = 4\nvalue = [4, 0]", fillcolor="#e58139"] ;
72 -> 76 ;
77 [label="DiabetesPedigreeFunction <= 0.521\ngini = 0.427\nsamples = 139\nvalue = [43, 96]", fillcolor="#92c9f1"] ;
67 -> 77 ;
78 [label="SkinThickness <= 28.0\ngini = 0.485\nsamples = 87\nvalue = [36.0, 51.0]", fillcolor="#c5e2f7"] ;
77 -> 78 ;
79 [label="BloodPressure <= 83.0\ngini = 0.4\nsamples = 58\nvalue = [16, 42]", fillcolor="#84c2ef"] ;
78 -> 79 ;
80 [label="Insulin <= 11.0\ngini = 0.287\nsamples = 46\nvalue = [8, 38]", fillcolor="#63b2ea"] ;
79 -> 80 ;
81 [label="Pregnancies <= 8.5\ngini = 0.21\nsamples = 42\nvalue = [5, 37]", fillcolor="#54aae9"] ;
80 -> 81 ;
82 [label="Age <= 29.5\ngini = 0.056\nsamples = 35\nvalue = [1, 34]", fillcolor="#3fa0e6"] ;
81 -> 82 ;
83 [label="BMI <= 31.3\ngini = 0.5\nsamples = 2\nvalue = [1, 1]", fillcolor="#ffffff"] ;
82 -> 83 ;
84 [label="gini = 0.0\nsamples = 1\nvalue = [0, 1]", fillcolor="#399de5"] ;
83 -> 84 ;
85 [label="gini = 0.0\nsamples = 1\nvalue = [1, 0]", fillcolor="#e58139"] ;
83 -> 85 ;
86 [label="gini = 0.0\nsamples = 33\nvalue = [0, 33]", fillcolor="#399de5"] ;
82 -> 86 ;
87 [label="BMI <= 30.776\ngini = 0.49\nsamples = 7\nvalue = [4, 3]", fillcolor="#f8e0ce"] ;
81 -> 87 ;
88 [label="gini = 0.0\nsamples = 2\nvalue = [0, 2]", fillcolor="#399de5"] ;
87 -> 88 ;
89 [label="DiabetesPedigreeFunction <= 0.265\ngini = 0.32\nsamples = 5\nvalue = [4, 1]", fillcolor="#eca06a"] ;
87 -> 89 ;
90 [label="gini = 0.0\nsamples = 3\nvalue = [3, 0]", fillcolor="#e58139"] ;
89 -> 90 ;
91 [label="Glucose <= 107.0\ngini = 0.5\nsamples = 2\nvalue = [1, 1]", fillcolor="#ffffff"] ;
89 -> 91 ;
92 [label="gini = 0.0\nsamples = 1\nvalue = [1, 0]", fillcolor="#e58139"] ;
91 -> 92 ;
93 [label="gini = 0.0\nsamples = 1\nvalue = [0, 1]", fillcolor="#399de5"] ;
91 -> 93 ;
94 [label="Pregnancies <= 9.0\ngini = 0.375\nsamples = 4\nvalue = [3, 1]", fillcolor="#eeab7b"] ;
80 -> 94 ;
95 [label="gini = 0.0\nsamples = 3\nvalue = [3, 0]", fillcolor="#e58139"] ;
94 -> 95 ;
96 [label="gini = 0.0\nsamples = 1\nvalue = [0, 1]", fillcolor="#399de5"] ;
94 -> 96 ;
97 [label="Insulin <= 110.0\ngini = 0.444\nsamples = 12\nvalue = [8, 4]", fillcolor="#f2c09c"] ;
79 -> 97 ;
98 [label="gini = 0.0\nsamples = 8\nvalue = [8, 0]", fillcolor="#e58139"] ;
97 -> 98 ;
99 [label="gini = 0.0\nsamples = 4\nvalue = [0, 4]", fillcolor="#399de5"] ;
97 -> 99 ;
100 [label="Age <= 37.5\ngini = 0.428\nsamples = 29\nvalue = [20, 9]", fillcolor="#f1ba92"] ;
78 -> 100 ;
101 [label="DiabetesPedigreeFunction <= 0.193\ngini = 0.5\nsamples = 16\nvalue = [8, 8]", fillcolor="#ffffff"] ;
100 -> 101 ;
102 [label="gini = 0.0\nsamples = 4\nvalue = [4, 0]", fillcolor="#e58139"] ;
101 -> 102 ;
103 [label="DiabetesPedigreeFunction <= 0.416\ngini = 0.444\nsamples = 12\nvalue = [4, 8]", fillcolor="#9ccef2"] ;
101 -> 103 ;
104 [label="Glucose <= 100.0\ngini = 0.32\nsamples = 10\nvalue = [2, 8]", fillcolor="#6ab6ec"] ;
103 -> 104 ;
105 [label="gini = 0.0\nsamples = 1\nvalue = [1, 0]", fillcolor="#e58139"] ;
104 -> 105 ;
106 [label="Insulin <= 311.0\ngini = 0.198\nsamples = 9\nvalue = [1, 8]", fillcolor="#52a9e8"] ;
104 -> 106 ;
107 [label="gini = 0.0\nsamples = 8\nvalue = [0, 8]", fillcolor="#399de5"] ;
106 -> 107 ;
108 [label="gini = 0.0\nsamples = 1\nvalue = [1, 0]", fillcolor="#e58139"] ;
106 -> 108 ;
109 [label="gini = 0.0\nsamples = 2\nvalue = [2, 0]", fillcolor="#e58139"] ;
103 -> 109 ;
110 [label="BloodPressure <= 94.0\ngini = 0.142\nsamples = 13\nvalue = [12, 1]", fillcolor="#e78c49"] ;
100 -> 110 ;
111 [label="gini = 0.0\nsamples = 11\nvalue = [11, 0]", fillcolor="#e58139"] ;
110 -> 111 ;
112 [label="Glucose <= 104.0\ngini = 0.5\nsamples = 2\nvalue = [1, 1]", fillcolor="#ffffff"] ;
110 -> 112 ;
113 [label="gini = 0.0\nsamples = 1\nvalue = [1, 0]", fillcolor="#e58139"] ;
112 -> 113 ;
114 [label="gini = 0.0\nsamples = 1\nvalue = [0, 1]", fillcolor="#399de5"] ;
112 -> 114 ;
115 [label="SkinThickness <= 47.5\ngini = 0.233\nsamples = 52\nvalue = [7, 45]", fillcolor="#58ace9"] ;
77 -> 115 ;
116 [label="DiabetesPedigreeFunction <= 1.366\ngini = 0.18\nsamples = 50\nvalue = [5, 45]", fillcolor="#4fa8e8"] ;
115 -> 116 ;
117 [label="BloodPressure <= 25.0\ngini = 0.15\nsamples = 49\nvalue = [4.0, 45.0]", fillcolor="#4ba6e7"] ;
116 -> 117 ;
118 [label="gini = 0.0\nsamples = 1\nvalue = [1, 0]", fillcolor="#e58139"] ;
117 -> 118 ;
119 [label="BMI <= 27.35\ngini = 0.117\nsamples = 48\nvalue = [3, 45]", fillcolor="#46a4e7"] ;
117 -> 119 ;
120 [label="Age <= 32.5\ngini = 0.5\nsamples = 2\nvalue = [1, 1]", fillcolor="#ffffff"] ;
119 -> 120 ;
121 [label="gini = 0.0\nsamples = 1\nvalue = [1, 0]", fillcolor="#e58139"] ;
120 -> 121 ;
122 [label="gini = 0.0\nsamples = 1\nvalue = [0, 1]", fillcolor="#399de5"] ;
120 -> 122 ;
123 [label="Glucose <= 119.5\ngini = 0.083\nsamples = 46\nvalue = [2, 44]", fillcolor="#42a1e6"] ;
119 -> 123 ;
124 [label="gini = 0.0\nsamples = 35\nvalue = [0, 35]", fillcolor="#399de5"] ;
123 -> 124 ;
125 [label="Insulin <= 203.0\ngini = 0.298\nsamples = 11\nvalue = [2, 9]", fillcolor="#65b3eb"] ;
123 -> 125 ;
126 [label="SkinThickness <= 10.0\ngini = 0.18\nsamples = 10\nvalue = [1, 9]", fillcolor="#4fa8e8"] ;
125 -> 126 ;
127 [label="Pregnancies <= 6.5\ngini = 0.444\nsamples = 3\nvalue = [1, 2]", fillcolor="#9ccef2"] ;
126 -> 127 ;
128 [label="gini = 0.0\nsamples = 1\nvalue = [1, 0]", fillcolor="#e58139"] ;
127 -> 128 ;
129 [label="gini = 0.0\nsamples = 2\nvalue = [0, 2]", fillcolor="#399de5"] ;
127 -> 129 ;
130 [label="gini = 0.0\nsamples = 7\nvalue = [0, 7]", fillcolor="#399de5"] ;
126 -> 130 ;
131 [label="gini = 0.0\nsamples = 1\nvalue = [1, 0]", fillcolor="#e58139"] ;
125 -> 131 ;
132 [label="gini = 0.0\nsamples = 1\nvalue = [1, 0]", fillcolor="#e58139"] ;
116 -> 132 ;
133 [label="gini = 0.0\nsamples = 2\nvalue = [2, 0]", fillcolor="#e58139"] ;
115 -> 133 ;
134 [label="BMI <= 29.744\ngini = 0.378\nsamples = 320\nvalue = [81, 239]", fillcolor="#7cbeee"] ;
0 -> 134 [labeldistance=2.5, labelangle=-45, headlabel="False"] ;
135 [label="Glucose <= 146.5\ngini = 0.493\nsamples = 61\nvalue = [34, 27]", fillcolor="#fae5d6"] ;
134 -> 135 ;
136 [label="BloodPressure <= 55.0\ngini = 0.291\nsamples = 34\nvalue = [28, 6]", fillcolor="#eb9c63"] ;
135 -> 136 ;
137 [label="Age <= 45.0\ngini = 0.444\nsamples = 3\nvalue = [1, 2]", fillcolor="#9ccef2"] ;
136 -> 137 ;
138 [label="gini = 0.0\nsamples = 2\nvalue = [0, 2]", fillcolor="#399de5"] ;
137 -> 138 ;
139 [label="gini = 0.0\nsamples = 1\nvalue = [1, 0]", fillcolor="#e58139"] ;
137 -> 139 ;
140 [label="SkinThickness <= 28.0\ngini = 0.225\nsamples = 31\nvalue = [27, 4]", fillcolor="#e99456"] ;
136 -> 140 ;
141 [label="Age <= 32.5\ngini = 0.142\nsamples = 26\nvalue = [24, 2]", fillcolor="#e78c49"] ;
140 -> 141 ;
142 [label="gini = 0.0\nsamples = 15\nvalue = [15, 0]", fillcolor="#e58139"] ;
141 -> 142 ;
143 [label="BMI <= 27.85\ngini = 0.298\nsamples = 11\nvalue = [9, 2]", fillcolor="#eb9d65"] ;
141 -> 143 ;
144 [label="BloodPressure <= 73.0\ngini = 0.18\nsamples = 10\nvalue = [9, 1]", fillcolor="#e88f4f"] ;
143 -> 144 ;
145 [label="Pregnancies <= 5.0\ngini = 0.5\nsamples = 2\nvalue = [1, 1]", fillcolor="#ffffff"] ;
144 -> 145 ;
146 [label="gini = 0.0\nsamples = 1\nvalue = [0, 1]", fillcolor="#399de5"] ;
145 -> 146 ;
147 [label="gini = 0.0\nsamples = 1\nvalue = [1, 0]", fillcolor="#e58139"] ;
145 -> 147 ;
148 [label="gini = 0.0\nsamples = 8\nvalue = [8, 0]", fillcolor="#e58139"] ;
144 -> 148 ;
149 [label="gini = 0.0\nsamples = 1\nvalue = [0, 1]", fillcolor="#399de5"] ;
143 -> 149 ;
150 [label="DiabetesPedigreeFunction <= 0.336\ngini = 0.48\nsamples = 5\nvalue = [3, 2]", fillcolor="#f6d5bd"] ;
140 -> 150 ;
151 [label="gini = 0.0\nsamples = 2\nvalue = [0, 2]", fillcolor="#399de5"] ;
150 -> 151 ;
152 [label="gini = 0.0\nsamples = 3\nvalue = [3, 0]", fillcolor="#e58139"] ;
150 -> 152 ;
153 [label="Age <= 27.5\ngini = 0.346\nsamples = 27\nvalue = [6, 21]", fillcolor="#72b9ec"] ;
135 -> 153 ;
154 [label="gini = 0.0\nsamples = 3\nvalue = [3, 0]", fillcolor="#e58139"] ;
153 -> 154 ;
155 [label="Age <= 61.5\ngini = 0.219\nsamples = 24\nvalue = [3, 21]", fillcolor="#55abe9"] ;
153 -> 155 ;
156 [label="BMI <= 22.2\ngini = 0.159\nsamples = 23\nvalue = [2, 21]", fillcolor="#4ca6e7"] ;
155 -> 156 ;
157 [label="gini = 0.0\nsamples = 1\nvalue = [1, 0]", fillcolor="#e58139"] ;
156 -> 157 ;
158 [label="SkinThickness <= 35.5\ngini = 0.087\nsamples = 22\nvalue = [1, 21]", fillcolor="#42a2e6"] ;
156 -> 158 ;
159 [label="gini = 0.0\nsamples = 21\nvalue = [0, 21]", fillcolor="#399de5"] ;
158 -> 159 ;
160 [label="gini = 0.0\nsamples = 1\nvalue = [1, 0]", fillcolor="#e58139"] ;
158 -> 160 ;
161 [label="gini = 0.0\nsamples = 1\nvalue = [1, 0]", fillcolor="#e58139"] ;
155 -> 161 ;
162 [label="Glucose <= 154.5\ngini = 0.297\nsamples = 259\nvalue = [47, 212]", fillcolor="#65b3eb"] ;
134 -> 162 ;
163 [label="DiabetesPedigreeFunction <= 0.436\ngini = 0.402\nsamples = 140\nvalue = [39, 101]", fillcolor="#85c3ef"] ;
162 -> 163 ;
164 [label="SkinThickness <= 32.0\ngini = 0.492\nsamples = 62\nvalue = [27, 35]", fillcolor="#d2e9f9"] ;
163 -> 164 ;
165 [label="BMI <= 32.45\ngini = 0.486\nsamples = 36\nvalue = [21, 15]", fillcolor="#f8dbc6"] ;
164 -> 165 ;
166 [label="gini = 0.0\nsamples = 8\nvalue = [8, 0]", fillcolor="#e58139"] ;
165 -> 166 ;
167 [label="Insulin <= 153.0\ngini = 0.497\nsamples = 28\nvalue = [13, 15]", fillcolor="#e5f2fc"] ;
165 -> 167 ;
168 [label="Age <= 25.5\ngini = 0.454\nsamples = 23\nvalue = [8, 15]", fillcolor="#a3d1f3"] ;
167 -> 168 ;
169 [label="gini = 0.0\nsamples = 2\nvalue = [2, 0]", fillcolor="#e58139"] ;
168 -> 169 ;
170 [label="BloodPressure <= 74.5\ngini = 0.408\nsamples = 21\nvalue = [6, 15]", fillcolor="#88c4ef"] ;
168 -> 170 ;
171 [label="Glucose <= 129.5\ngini = 0.165\nsamples = 11\nvalue = [1, 10]", fillcolor="#4da7e8"] ;
170 -> 171 ;
172 [label="Pregnancies <= 4.0\ngini = 0.444\nsamples = 3\nvalue = [1, 2]", fillcolor="#9ccef2"] ;
171 -> 172 ;
173 [label="gini = 0.0\nsamples = 1\nvalue = [1, 0]", fillcolor="#e58139"] ;
172 -> 173 ;
174 [label="gini = 0.0\nsamples = 2\nvalue = [0, 2]", fillcolor="#399de5"] ;
172 -> 174 ;
175 [label="gini = 0.0\nsamples = 8\nvalue = [0, 8]", fillcolor="#399de5"] ;
171 -> 175 ;
176 [label="DiabetesPedigreeFunction <= 0.226\ngini = 0.5\nsamples = 10\nvalue = [5, 5]", fillcolor="#ffffff"] ;
170 -> 176 ;
177 [label="gini = 0.0\nsamples = 3\nvalue = [3, 0]", fillcolor="#e58139"] ;
176 -> 177 ;
178 [label="Age <= 39.0\ngini = 0.408\nsamples = 7\nvalue = [2, 5]", fillcolor="#88c4ef"] ;
176 -> 178 ;
179 [label="BloodPressure <= 91.5\ngini = 0.444\nsamples = 3\nvalue = [2, 1]", fillcolor="#f2c09c"] ;
178 -> 179 ;
180 [label="gini = 0.0\nsamples = 2\nvalue = [2, 0]", fillcolor="#e58139"] ;
179 -> 180 ;
181 [label="gini = 0.0\nsamples = 1\nvalue = [0, 1]", fillcolor="#399de5"] ;
179 -> 181 ;
182 [label="gini = 0.0\nsamples = 4\nvalue = [0, 4]", fillcolor="#399de5"] ;
178 -> 182 ;
183 [label="gini = 0.0\nsamples = 5\nvalue = [5, 0]", fillcolor="#e58139"] ;
167 -> 183 ;
184 [label="SkinThickness <= 48.0\ngini = 0.355\nsamples = 26\nvalue = [6, 20]", fillcolor="#74baed"] ;
164 -> 184 ;
185 [label="Insulin <= 261.0\ngini = 0.278\nsamples = 24\nvalue = [4, 20]", fillcolor="#61b1ea"] ;
184 -> 185 ;
186 [label="DiabetesPedigreeFunction <= 0.183\ngini = 0.227\nsamples = 23\nvalue = [3, 20]", fillcolor="#57ace9"] ;
185 -> 186 ;
187 [label="gini = 0.0\nsamples = 1\nvalue = [1, 0]", fillcolor="#e58139"] ;
186 -> 187 ;
188 [label="BloodPressure <= 89.0\ngini = 0.165\nsamples = 22\nvalue = [2, 20]", fillcolor="#4da7e8"] ;
186 -> 188 ;
189 [label="gini = 0.0\nsamples = 16\nvalue = [0, 16]", fillcolor="#399de5"] ;
188 -> 189 ;
190 [label="BMI <= 41.35\ngini = 0.444\nsamples = 6\nvalue = [2, 4]", fillcolor="#9ccef2"] ;
188 -> 190 ;
191 [label="SkinThickness <= 37.0\ngini = 0.444\nsamples = 3\nvalue = [2, 1]", fillcolor="#f2c09c"] ;
190 -> 191 ;
192 [label="gini = 0.0\nsamples = 1\nvalue = [0, 1]", fillcolor="#399de5"] ;
191 -> 192 ;
193 [label="gini = 0.0\nsamples = 2\nvalue = [2, 0]", fillcolor="#e58139"] ;
191 -> 193 ;
194 [label="gini = 0.0\nsamples = 3\nvalue = [0, 3]", fillcolor="#399de5"] ;
190 -> 194 ;
195 [label="gini = 0.0\nsamples = 1\nvalue = [1, 0]", fillcolor="#e58139"] ;
185 -> 195 ;
196 [label="gini = 0.0\nsamples = 2\nvalue = [2, 0]", fillcolor="#e58139"] ;
184 -> 196 ;
197 [label="Age <= 29.5\ngini = 0.26\nsamples = 78\nvalue = [12, 66]", fillcolor="#5dafea"] ;
163 -> 197 ;
198 [label="Glucose <= 142.5\ngini = 0.483\nsamples = 22\nvalue = [9, 13]", fillcolor="#c2e1f7"] ;
197 -> 198 ;
199 [label="Glucose <= 131.5\ngini = 0.305\nsamples = 16\nvalue = [3, 13]", fillcolor="#67b4eb"] ;
198 -> 199 ;
200 [label="BloodPressure <= 73.0\ngini = 0.5\nsamples = 6\nvalue = [3, 3]", fillcolor="#ffffff"] ;
199 -> 200 ;
201 [label="Insulin <= 90.0\ngini = 0.375\nsamples = 4\nvalue = [1, 3]", fillcolor="#7bbeee"] ;
200 -> 201 ;
202 [label="gini = 0.0\nsamples = 1\nvalue = [1, 0]", fillcolor="#e58139"] ;
201 -> 202 ;
203 [label="gini = 0.0\nsamples = 3\nvalue = [0, 3]", fillcolor="#399de5"] ;
201 -> 203 ;
204 [label="gini = 0.0\nsamples = 2\nvalue = [2, 0]", fillcolor="#e58139"] ;
200 -> 204 ;
205 [label="gini = 0.0\nsamples = 10\nvalue = [0, 10]", fillcolor="#399de5"] ;
199 -> 205 ;
206 [label="gini = 0.0\nsamples = 6\nvalue = [6, 0]", fillcolor="#e58139"] ;
198 -> 206 ;
207 [label="DiabetesPedigreeFunction <= 1.142\ngini = 0.101\nsamples = 56\nvalue = [3, 53]", fillcolor="#44a3e6"] ;
197 -> 207 ;
208 [label="BMI <= 40.05\ngini = 0.038\nsamples = 52\nvalue = [1, 51]", fillcolor="#3d9fe6"] ;
207 -> 208 ;
209 [label="gini = 0.0\nsamples = 42\nvalue = [0, 42]", fillcolor="#399de5"] ;
208 -> 209 ;
210 [label="BMI <= 40.7\ngini = 0.18\nsamples = 10\nvalue = [1, 9]", fillcolor="#4fa8e8"] ;
208 -> 210 ;
211 [label="gini = 0.0\nsamples = 1\nvalue = [1, 0]", fillcolor="#e58139"] ;
210 -> 211 ;
212 [label="gini = 0.0\nsamples = 9\nvalue = [0, 9]", fillcolor="#399de5"] ;
210 -> 212 ;
213 [label="Age <= 36.0\ngini = 0.5\nsamples = 4\nvalue = [2, 2]", fillcolor="#ffffff"] ;
207 -> 213 ;
214 [label="gini = 0.0\nsamples = 2\nvalue = [0, 2]", fillcolor="#399de5"] ;
213 -> 214 ;
215 [label="gini = 0.0\nsamples = 2\nvalue = [2, 0]", fillcolor="#e58139"] ;
213 -> 215 ;
216 [label="DiabetesPedigreeFunction <= 2.168\ngini = 0.125\nsamples = 119\nvalue = [8, 111]", fillcolor="#47a4e7"] ;
162 -> 216 ;
217 [label="DiabetesPedigreeFunction <= 0.295\ngini = 0.112\nsamples = 118\nvalue = [7, 111]", fillcolor="#45a3e7"] ;
216 -> 217 ;
218 [label="Age <= 30.5\ngini = 0.264\nsamples = 32\nvalue = [5, 27]", fillcolor="#5eafea"] ;
217 -> 218 ;
219 [label="Glucose <= 160.5\ngini = 0.49\nsamples = 7\nvalue = [4, 3]", fillcolor="#f8e0ce"] ;
218 -> 219 ;
220 [label="gini = 0.0\nsamples = 2\nvalue = [2, 0]", fillcolor="#e58139"] ;
219 -> 220 ;
221 [label="Age <= 25.5\ngini = 0.48\nsamples = 5\nvalue = [2, 3]", fillcolor="#bddef6"] ;
219 -> 221 ;
222 [label="gini = 0.0\nsamples = 2\nvalue = [0, 2]", fillcolor="#399de5"] ;
221 -> 222 ;
223 [label="SkinThickness <= 21.5\ngini = 0.444\nsamples = 3\nvalue = [2, 1]", fillcolor="#f2c09c"] ;
221 -> 223 ;
224 [label="gini = 0.0\nsamples = 1\nvalue = [0, 1]", fillcolor="#399de5"] ;
223 -> 224 ;
225 [label="gini = 0.0\nsamples = 2\nvalue = [2, 0]", fillcolor="#e58139"] ;
223 -> 225 ;
226 [label="Age <= 56.5\ngini = 0.077\nsamples = 25\nvalue = [1, 24]", fillcolor="#41a1e6"] ;
218 -> 226 ;
227 [label="gini = 0.0\nsamples = 23\nvalue = [0, 23]", fillcolor="#399de5"] ;
226 -> 227 ;
228 [label="BMI <= 34.85\ngini = 0.5\nsamples = 2\nvalue = [1, 1]", fillcolor="#ffffff"] ;
226 -> 228 ;
229 [label="gini = 0.0\nsamples = 1\nvalue = [1, 0]", fillcolor="#e58139"] ;
228 -> 229 ;
230 [label="gini = 0.0\nsamples = 1\nvalue = [0, 1]", fillcolor="#399de5"] ;
228 -> 230 ;
231 [label="DiabetesPedigreeFunction <= 1.157\ngini = 0.045\nsamples = 86\nvalue = [2, 84]", fillcolor="#3e9fe6"] ;
217 -> 231 ;
232 [label="gini = 0.0\nsamples = 73\nvalue = [0, 73]", fillcolor="#399de5"] ;
231 -> 232 ;
233 [label="Age <= 43.5\ngini = 0.26\nsamples = 13\nvalue = [2, 11]", fillcolor="#5dafea"] ;
231 -> 233 ;
234 [label="gini = 0.0\nsamples = 10\nvalue = [0, 10]", fillcolor="#399de5"] ;
233 -> 234 ;
235 [label="Glucose <= 183.5\ngini = 0.444\nsamples = 3\nvalue = [2, 1]", fillcolor="#f2c09c"] ;
233 -> 235 ;
236 [label="gini = 0.0\nsamples = 2\nvalue = [2, 0]", fillcolor="#e58139"] ;
235 -> 236 ;
237 [label="gini = 0.0\nsamples = 1\nvalue = [0, 1]", fillcolor="#399de5"] ;
235 -> 237 ;
238 [label="gini = 0.0\nsamples = 1\nvalue = [1, 0]", fillcolor="#e58139"] ;
216 -> 238 ;
}